label,dim_0,dim_1,dim_2,dim_3,dim_4,dim_5,dim_6,dim_7,dim_8,dim_9,dim_10,dim_11,dim_12,dim_13,dim_14,dim_15,dim_16,dim_17,dim_18,dim_19,dim_20,dim_21,dim_22,dim_23,dim_24,dim_25,dim_26,dim_27,dim_28,dim_29,dim_30,dim_31,dim_32,dim_33,dim_34,dim_35,dim_36,dim_37,dim_38,dim_39,dim_40,dim_41,dim_42,dim_43,dim_44,dim_45,dim_46,dim_47,dim_48,dim_49,dim_50,dim_51,dim_52,dim_53,dim_54,dim_55,dim_56,dim_57,dim_58,dim_59,dim_60,dim_61,dim_62,dim_63,dim_64,dim_65,dim_66,dim_67,dim_68,dim_69,dim_70,dim_71,dim_72,dim_73,dim_74,dim_75,dim_76,dim_77,dim_78,dim_79,dim_80,dim_81,dim_82,dim_83,dim_84,dim_85,dim_86,dim_87,dim_88,dim_89,dim_90,dim_91,dim_92,dim_93,dim_94,dim_95,dim_96,dim_97,dim_98,dim_99,dim_100,dim_101,dim_102,dim_103,dim_104,dim_105,dim_106,dim_107,dim_108,dim_109,dim_110,dim_111,dim_112,dim_113,dim_114,dim_115,dim_116,dim_117,dim_118,dim_119,dim_120,dim_121,dim_122,dim_123,dim_124,dim_125,dim_126,dim_127,dim_128,dim_129,dim_130,dim_131,dim_132,dim_133,dim_134,dim_135,dim_136,dim_137,dim_138,dim_139,dim_140,dim_141,dim_142,dim_143,dim_144,dim_145,dim_146,dim_147,dim_148,dim_149,dim_150,dim_151,dim_152,dim_153,dim_154,dim_155,dim_156,dim_157,dim_158,dim_159,dim_160,dim_161,dim_162,dim_163,dim_164,dim_165,dim_166,dim_167,dim_168,dim_169,dim_170,dim_171,dim_172,dim_173,dim_174,dim_175,dim_176,dim_177,dim_178,dim_179,dim_180,dim_181,dim_182,dim_183,dim_184,dim_185,dim_186,dim_187,dim_188,dim_189,dim_190,dim_191,dim_192,dim_193,dim_194,dim_195,dim_196,dim_197,dim_198,dim_199,dim_200,dim_201,dim_202,dim_203,dim_204,dim_205,dim_206,dim_207,dim_208,dim_209,dim_210,dim_211,dim_212,dim_213,dim_214,dim_215,dim_216,dim_217,dim_218,dim_219,dim_220,dim_221,dim_222,dim_223,dim_224,dim_225,dim_226,dim_227,dim_228,dim_229,dim_230,dim_231,dim_232,dim_233,dim_234,dim_235,dim_236,dim_237,dim_238,dim_239,dim_240,dim_241,dim_242,dim_243,dim_244,dim_245,dim_246,dim_247,dim_248,dim_249,dim_250,dim_251,dim_252,dim_253,dim_254,dim_255,dim_256,dim_257,dim_258,dim_259,dim_260,dim_261,dim_262,dim_263,dim_264,dim_265,dim_266,dim_267,dim_268,dim_269,dim_270,dim_271,dim_272,dim_273,dim_274,dim_275,dim_276,dim_277,dim_278,dim_279,dim_280,dim_281,dim_282,dim_283,dim_284,dim_285,dim_286,dim_287,dim_288,dim_289,dim_290,dim_291,dim_292,dim_293,dim_294,dim_295,dim_296,dim_297,dim_298,dim_299,dim_300,dim_301,dim_302,dim_303,dim_304,dim_305,dim_306,dim_307,dim_308,dim_309,dim_310,dim_311,dim_312,dim_313,dim_314,dim_315,dim_316,dim_317,dim_318,dim_319,dim_320,dim_321,dim_322,dim_323,dim_324,dim_325,dim_326,dim_327,dim_328,dim_329,dim_330,dim_331,dim_332,dim_333,dim_334,dim_335,dim_336,dim_337,dim_338,dim_339,dim_340,dim_341,dim_342,dim_343,dim_344,dim_345,dim_346,dim_347,dim_348,dim_349,dim_350,dim_351,dim_352,dim_353,dim_354,dim_355,dim_356,dim_357,dim_358,dim_359,dim_360,dim_361,dim_362,dim_363,dim_364,dim_365,dim_366,dim_367,dim_368,dim_369,dim_370,dim_371,dim_372,dim_373,dim_374,dim_375,dim_376,dim_377,dim_378,dim_379,dim_380,dim_381,dim_382,dim_383,dim_384,dim_385,dim_386,dim_387,dim_388,dim_389,dim_390,dim_391,dim_392,dim_393,dim_394,dim_395,dim_396,dim_397,dim_398,dim_399,dim_400,dim_401,dim_402,dim_403,dim_404,dim_405,dim_406,dim_407,dim_408,dim_409,dim_410,dim_411,dim_412,dim_413,dim_414,dim_415,dim_416,dim_417,dim_418,dim_419,dim_420,dim_421,dim_422,dim_423,dim_424,dim_425,dim_426,dim_427,dim_428,dim_429,dim_430,dim_431,dim_432,dim_433,dim_434,dim_435,dim_436,dim_437,dim_438,dim_439,dim_440,dim_441,dim_442,dim_443,dim_444,dim_445,dim_446,dim_447,dim_448,dim_449,dim_450,dim_451,dim_452,dim_453,dim_454,dim_455,dim_456,dim_457,dim_458,dim_459,dim_460,dim_461,dim_462,dim_463,dim_464,dim_465,dim_466,dim_467,dim_468,dim_469,dim_470,dim_471,dim_472,dim_473,dim_474,dim_475,dim_476,dim_477,dim_478,dim_479,dim_480,dim_481,dim_482,dim_483,dim_484,dim_485,dim_486,dim_487,dim_488,dim_489,dim_490,dim_491,dim_492,dim_493,dim_494,dim_495,dim_496,dim_497,dim_498,dim_499,dim_500,dim_501,dim_502,dim_503,dim_504,dim_505,dim_506,dim_507,dim_508,dim_509,dim_510,dim_511
chien,-0.012180005200207233,0.02925654500722885,-0.057213105261325836,-0.045715365558862686,-0.06391240656375885,-0.02858944982290268,0.032089561223983765,-0.01280415803194046,-0.017595641314983368,0.09734628349542618,-0.021137788891792297,-0.02155706100165844,0.007846140302717686,0.05031697452068329,0.03857423737645149,-0.05249032750725746,0.0062171174213290215,0.06424286961555481,-0.07550717890262604,0.09863052517175674,-0.024449875578284264,-0.03848870098590851,0.07211323082447052,-0.046727441251277924,0.012574538588523865,-0.029359517619013786,-0.034687239676713943,-0.027616802603006363,0.023006843402981758,-0.05653144046664238,0.04458295926451683,0.08365601301193237,-0.07275138795375824,0.07499950379133224,0.008980474434792995,-0.044501159340143204,-0.0038375447038561106,-0.047164130955934525,-0.04281376674771309,-0.00021613702119793743,-0.01828819140791893,-0.038180217146873474,-0.048539821058511734,0.03908088430762291,-0.021757401525974274,-0.015102019533514977,0.0491471067070961,0.02181260474026203,-0.031460728496313095,-0.022000648081302643,-0.01590636745095253,-0.07744546234607697,0.014029007405042648,-0.00979089830070734,-0.025597048923373222,-0.020495343953371048,-0.12104842066764832,0.018892763182520866,0.022230474278330803,0.05738632380962372,-0.06272021681070328,0.05274590477347374,-0.039975907653570175,0.05178425833582878,-0.008416658267378807,-0.07833515107631683,-0.01013764925301075,-0.0005744918016716838,-0.01170806959271431,0.0014399851206690073,-0.036343272775411606,-0.025500603020191193,-5.201300518820062e-05,0.012430001981556416,-0.01564646326005459,-0.053628262132406235,-0.018797360360622406,-0.04010650888085365,0.06156833842396736,-0.06102708354592323,0.03690185397863388,-0.01024654135107994,-0.0009212286677211523,0.014779819175601006,-0.05411375313997269,0.03879981487989426,-0.03928148001432419,0.005008463282138109,-0.05046526715159416,0.00627732090651989,0.00975327380001545,0.032310713082551956,0.011630426160991192,-0.05056196451187134,0.039352960884571075,0.017263216897845268,-0.024051109328866005,-0.0020353500731289387,0.00816227775067091,-0.002401751931756735,0.07060425728559494,0.09826728701591492,0.026533564552664757,0.01675821840763092,-0.014101725071668625,0.016550244763493538,-0.06150040775537491,-0.048689570277929306,-0.08919466286897659,-0.030781861394643784,-0.006835422478616238,-0.015116488561034203,0.04397886246442795,0.0007896643364802003,-0.04975595697760582,0.0431298203766346,0.0023668536450713873,0.009229185990989208,-0.0739784762263298,0.004570877179503441,0.06597208231687546,0.019151803106069565,0.04472281411290169,0.015157048590481281,-0.021001402288675308,-0.042015742510557175,-0.001131775788962841,0.009886980056762695,-0.02851835824549198,-0.035250622779130936,-0.019911281764507294,0.016706028953194618,-0.03475439175963402,-0.031683020293712616,0.07677779346704483,-0.029183147475123405,0.00040615341276861727,-0.0838174968957901,-0.020154867321252823,0.051254477351903915,-0.04389084875583649,0.00527478801086545,0.0024164081551134586,-0.002382937353104353,0.0034997528418898582,0.05164740979671478,-0.04346786066889763,0.02684135176241398,0.01693376712501049,-0.012922421097755432,-0.0006017587729729712,0.04185072332620621,0.02700447477400303,0.03341125696897507,0.03129640966653824,-0.043332409113645554,-0.0431474968791008,-0.01631682552397251,-0.08204271644353867,-0.09729048609733582,0.034945785999298096,0.0938236340880394,0.02603604458272457,-0.007130250334739685,0.0648973137140274,-0.004322919528931379,-0.06070743501186371,-0.028069794178009033,-0.052051812410354614,-0.02136094868183136,-0.05788981169462204,0.007668432779610157,0.0019587150309234858,0.03136391565203667,-0.07326209545135498,-0.053922031074762344,-0.016367165371775627,0.05668269842863083,-0.04757219925522804,-0.00600726343691349,0.003028237260878086,0.05555437505245209,0.058896712958812714,0.010272210463881493,0.03880057483911514,0.012955544516444206,0.06512129306793213,-0.06178000941872597,-0.000783983152359724,-0.04100554436445236,0.039239365607500076,0.03861387073993683,0.06979335099458694,0.011242135427892208,0.017559243366122246,0.02840442955493927,-0.08137184381484985,-0.02280992455780506,0.06929551810026169,-0.018389016389846802,0.00694176135584712,-0.008693797513842583,0.007563102059066296,-0.011465659365057945,0.04051140323281288,-0.03851586952805519,0.01987663097679615,0.03885100409388542,0.03783430904150009,0.04108038917183876,-0.04169481247663498,0.05415547266602516,-0.07378865778446198,0.01147456094622612,0.013435439206659794,0.029631707817316055,0.07076353579759598,0.00701852235943079,-0.027360184118151665,0.033556997776031494,0.06316706538200378,0.09930674731731415,0.04325852543115616,-0.019475378096103668,0.03132564201951027,0.05605338141322136,0.04835125431418419,0.04809426888823509,-0.05015872046351433,0.06734663248062134,-0.022923722863197327,-0.008811910636723042,-0.02922920510172844,0.017378725111484528,-0.044150497764348984,0.025050535798072815,-0.04976514354348183,-0.04933806136250496,0.0497753880918026,-0.04100619629025459,-0.028142407536506653,-0.005746142938733101,-0.05582447350025177,0.017808876931667328,-0.013930613175034523,0.009142891503870487,-0.02196771837770939,0.029622642323374748,0.03637702018022537,0.05727843567728996,-0.01620330661535263,0.01498147938400507,0.05148116126656532,-0.026001425459980965,-0.0471155010163784,-0.026062486693263054,0.03531268611550331,0.012405045330524445,-0.03247380629181862,0.029015716165304184,0.02859017625451088,-0.036365579813718796,0.005879476200789213,0.012933780439198017,0.025063803419470787,-0.07504243403673172,-0.0126443300396204,0.0019549510907381773,0.06989689916372299,-0.03487985581159592,0.030492277815937996,-0.08310312032699585,0.0117651904001832,0.05380530655384064,-0.03405360132455826,0.03273424878716469,-0.024770179763436317,0.036429937928915024,0.026060033589601517,0.07643631100654602,-0.0322733037173748,0.015286564826965332,-0.04733358696103096,0.03833135962486267,0.002049206756055355,-0.0071739694103598595,0.03528064489364624,-0.02359209582209587,-0.045276153832674026,-0.017104698345065117,0.011917647905647755,0.06945118308067322,0.011472641490399837,-0.004635992459952831,-0.03620423376560211,-0.0005833146278746426,8.701517799636349e-05,-0.029158156365156174,-0.04095400497317314,0.009696095250546932,0.0024685843382030725,-0.00017460832896176726,-0.0468202568590641,-0.029760299250483513,0.09205029904842377,-0.028008313849568367,0.02066076546907425,-0.03753786161541939,-0.028952430933713913,-0.01590171456336975,-0.08357219398021698,-0.01173123624175787,-0.07757048308849335,-0.047802552580833435,0.030964741483330727,-0.04312392324209213,-0.0750516876578331,-0.037155307829380035,0.05356735736131668,-0.002156898844987154,-0.05737389251589775,-0.033628787845373154,0.016260556876659393,0.05709393694996834,-0.00710589624941349,-0.016479935497045517,-0.040998395532369614,0.02291369065642357,-0.04744923114776611,0.015646642073988914,-0.0364077091217041,0.008797502145171165,-0.07230933755636215,-0.05591060221195221,-0.005849913693964481,-0.021033715456724167,0.07825587689876556,0.012978820130228996,-0.037599194794893265,0.004475151188671589,-0.032887108623981476,-0.04490870237350464,0.006745276506990194,-0.04119398072361946,0.07147864997386932,0.055091492831707,-0.004616024438291788,0.05782592296600342,0.04956202954053879,0.1324344128370285,0.08500704169273376,-0.02603503316640854,0.006815040018409491,-0.0069178007543087006,0.044978611171245575,-0.011426819488406181,-0.055587247014045715,0.015139562077820301,-0.020024579018354416,-0.004465874284505844,0.061792973428964615,-0.071882463991642,-0.09092622995376587,-0.05963496118783951,0.027551820501685143,-0.005014154594391584,0.03296945244073868,0.05053117498755455,-0.040488891303539276,-0.05392949655652046,-0.012526089325547218,-0.0009811799973249435,0.06100773066282272,0.08478204905986786,0.0010331723606213927,0.028550555929541588,-0.0370633564889431,0.05224289000034332,-0.0017475205240771174,0.01358326431363821,-0.002519807079806924,-0.0013816336868330836,0.010340690612792969,-0.03167125582695007,-0.02427460439503193,-0.0716291144490242,-0.026842517778277397,0.0470769964158535,-0.04293590411543846,0.03476494923233986,-0.018846750259399414,0.03692670911550522,-0.025439990684390068,0.06693843752145767,0.022301988676190376,-0.035153668373823166,-0.09539104253053665,0.012186301872134209,0.03204463794827461,-0.04352214187383652,-0.032608408480882645,-0.007326007355004549,0.05420577898621559,0.04975048080086708,-0.01428640354424715,-0.026946790516376495,0.054578110575675964,0.04021561145782471,0.015505769290030003,-0.005042072851210833,-0.043560028076171875,0.004336993210017681,0.016771279275417328,0.048850711435079575,-0.0877828523516655,0.015200799331068993,0.030385881662368774,-0.02347652241587639,-0.01601502299308777,-0.10050651431083679,0.023425552994012833,0.009096249006688595,-0.07999413460493088,0.0794968456029892,0.055550482124090195,0.03494727611541748,0.04952293634414673,-0.06689532846212387,-0.007675792556256056,0.0017723062774166465,-0.03507392108440399,-0.05408400669693947,0.09511574357748032,-0.06707338988780975,0.05238807201385498,0.049865830689668655,-0.04793137311935425,-0.0489996038377285,-0.050459954887628555,-0.035453151911497116,-0.07702668756246567,-0.0017324329819530249,0.014931890182197094,0.05355561152100563,0.01958116702735424,0.04494192451238632,0.03311225399374962,-0.017763489857316017,0.04692002385854721,-0.02442728541791439,0.029141737148165703,0.028999825939536095,0.06417972594499588,-0.024776000529527664,0.015861358493566513,0.054600488394498825,-0.03801826760172844,0.07679107785224915,0.10156162083148956,-0.02349383756518364,0.0328708253800869,0.08490179479122162,0.03378026932477951,-0.02231205813586712,-0.0030310519505292177,0.05758212134242058,-0.017380578443408012,-0.031406186521053314,0.026687385514378548,0.0932784229516983,0.025146471336483955,0.014052920043468475,-0.0204320065677166,0.062327224761247635,0.0579695999622345,0.040878672152757645,0.03116714581847191,-0.0037382894661277533,0.03312032297253609,0.07206518948078156,0.08034984022378922,-0.03361613675951958,-0.057253316044807434,0.06444470584392548,0.03753542900085449,-0.02691011317074299,-0.04869285598397255,0.005352110136300325,0.12299210578203201,-0.03820791840553284,-0.10332542657852173,-0.1045352965593338,-0.038992710411548615,0.03263866901397705,0.000602254003752023,-0.08548115193843842,0.004075091797858477,0.018477028235793114,0.025337105616927147,-0.028087815269827843,-0.04233822599053383,-0.11807967722415924,0.026211252436041832,0.014649469405412674,-0.04794131591916084,0.014776918105781078,-0.0678708553314209,0.08766185492277145,0.026197610422968864,-0.04814038798213005,0.02330004796385765,0.039074935019016266
chien,0.03569605201482773,0.0404815636575222,-0.045717980712652206,-0.017981400713324547,-0.06578096747398376,-0.005171590950340033,-0.006879087071865797,0.012371192686259747,0.010078810155391693,0.12067244946956635,0.02815261296927929,0.009435913525521755,0.0056677223183214664,0.04402687028050423,0.01866917498409748,-0.07949835062026978,0.02353006601333618,0.09473925083875656,-0.03726040944457054,0.0741344541311264,0.009686562232673168,-0.0076523576863110065,0.09872268885374069,-0.026290303096175194,-0.007522209547460079,0.00048545136814936996,-0.04783105105161667,0.021251454949378967,-0.011307834647595882,-0.03403319790959358,0.022286275401711464,0.044698189944028854,-0.06452208757400513,0.01678847149014473,0.030877161771059036,-0.035066328942775726,-0.024102140218019485,-0.02747524529695511,-0.006866153795272112,-0.029422523453831673,-0.046664223074913025,-0.030832942575216293,-0.061559464782476425,0.041547030210494995,-0.015557631850242615,0.016045620664954185,0.005369632039219141,0.002823046874254942,-0.0147685082629323,-0.03232851251959801,-0.009023934602737427,-0.12310367077589035,-0.001860465039499104,0.02263437956571579,-0.0022963928058743477,-0.004280746914446354,-0.09322071820497513,0.028204135596752167,-0.003457956947386265,0.06550157070159912,-0.05698378384113312,0.046144455671310425,-0.06431911140680313,0.05782325193285942,-0.006391271948814392,-0.0951213613152504,0.01401553861796856,-0.012340572662651539,0.03814100846648216,0.027517886832356453,-0.003469353774562478,-0.0036966935731470585,-0.005373279098421335,-0.005992701277136803,0.011347584426403046,-0.08149268478155136,-0.03607884421944618,-0.004356018733233213,0.07615405321121216,-0.031622376292943954,0.02291630581021309,-0.008041349239647388,0.021690521389245987,-0.015527000650763512,-0.0887952446937561,0.053521476686000824,-0.03584928438067436,-0.0029574756044894457,-0.02943471074104309,-0.0006696293712593615,-0.036863308399915695,0.04778318107128143,-0.00562963867560029,-0.0012244813842698932,0.014374190010130405,0.03742852807044983,-0.0028369107749313116,0.009054383262991905,-0.013237018138170242,0.029294338077306747,0.011418106034398079,0.08836062252521515,0.013581573031842709,0.01948651298880577,0.022977842018008232,0.011226717382669449,-0.06813974678516388,-0.032813046127557755,-0.06788567453622818,-0.0030212453566491604,0.001355813816189766,-0.030460122972726822,0.048287976533174515,-0.004437662195414305,-0.01551421545445919,0.026093333959579468,0.04622051119804382,0.02144884690642357,-0.10245097428560257,0.002437991090118885,0.05599241331219673,0.032830484211444855,0.011588583700358868,0.002328110160306096,-0.01687406376004219,-0.029813867062330246,-0.047488246113061905,0.01707201637327671,-0.03669481724500656,-0.02756955474615097,-0.03779251128435135,0.011093077249825,-0.029073962941765785,-0.028222166001796722,0.0658402219414711,0.018321262672543526,-0.01811881735920906,-0.03553004935383797,0.005041013937443495,0.05109430477023125,-0.030227841809391975,-0.005438756663352251,0.030229477211833,-0.016091370955109596,-0.02851218171417713,0.0572185292840004,-0.039763469249010086,0.03307635709643364,0.011556051671504974,-0.0034211506135761738,-0.017784807831048965,0.022277893498539925,0.017497781664133072,0.05015627667307854,0.030069613829255104,-0.06639613211154938,-0.06486574560403824,-0.011289364658296108,-0.11074031889438629,-0.10926458239555359,0.005558287724852562,0.09619450569152832,-0.005018328316509724,0.022237032651901245,0.06988964974880219,-0.034196194261312485,-0.02094746194779873,-0.036463793367147446,-0.05032050237059593,0.0479249432682991,-0.06380121409893036,-0.007517385296523571,-0.02376028150320053,0.05772698298096657,-0.053587645292282104,-0.03850806504487991,-0.005463633686304092,0.10271249711513519,-0.03999600186944008,-0.002466561272740364,-0.0007249528425745666,0.043087273836135864,0.06073818355798721,0.00728668924421072,0.04979619011282921,-0.03005308099091053,0.08519458770751953,-0.06281895190477371,0.023279372602701187,-0.03306382894515991,0.05461788922548294,0.0484546422958374,0.08415064215660095,0.0061033559031784534,0.011079533956944942,0.03924546018242836,-0.08801590651273727,-0.027451947331428528,0.09199589490890503,-0.02984939143061638,0.06050366535782814,0.043853651732206345,0.023749779909849167,0.011243563145399094,0.05678984522819519,-0.005235809367150068,0.02274799533188343,0.01753205619752407,0.04553814232349396,0.017384951934218407,-0.03148328512907028,0.027493486180901527,-0.08247767388820648,0.003612607717514038,0.011785309761762619,0.008927577175199986,0.07391155511140823,-0.004371045622974634,-0.044797565788030624,0.03491796553134918,0.061521705240011215,0.1027807742357254,0.08582863956689835,-0.0006624060333706439,0.014086774550378323,0.03752996027469635,0.016895467415452003,0.07965036481618881,-0.021453415974974632,0.041513022035360336,-0.0046740067191421986,-0.002244054339826107,-0.026857547461986542,0.002032445278018713,-0.025810793042182922,0.049194782972335815,-0.10004206746816635,-0.016687337309122086,0.03575211390852928,-0.003182380460202694,-0.08085253089666367,0.033194322139024734,0.011363901197910309,0.04202289879322052,0.020436527207493782,0.04080656170845032,-0.01934179477393627,0.007831892929971218,0.08491060137748718,0.08763091266155243,-0.028576819226145744,0.0176192969083786,0.06787913292646408,-0.0019184794509783387,-0.04667123407125473,-0.04696604609489441,0.020368166267871857,0.03799810633063316,-0.051881466060876846,-0.001019522431306541,0.02745313197374344,-0.02786288782954216,0.006986801512539387,-0.009503163397312164,-0.005766661837697029,-0.10588400065898895,0.0010827539954334497,0.024022521451115608,0.02559020183980465,-0.017370589077472687,0.027148541063070297,-0.08443747460842133,0.036843810230493546,0.07565801590681076,-0.02643912471830845,0.03773503750562668,-0.016612133011221886,-0.0017649636138230562,0.013886719942092896,0.033500395715236664,-0.03136541321873665,0.055860795080661774,-0.1099359393119812,-0.006851582787930965,0.009245761670172215,0.028650114312767982,0.04283628240227699,0.008854932151734829,-0.0973425805568695,-0.0026631641667336226,0.01760493777692318,0.0279112309217453,0.00868898443877697,0.03063436783850193,-0.04362121596932411,-0.028437938541173935,0.02133091539144516,-0.015580779872834682,-0.059750478714704514,-0.04354177787899971,0.0005398616776801646,0.016800949349999428,-0.06650187075138092,-0.0022125302348285913,0.0486682765185833,-0.029567096382379532,7.529459981014952e-05,-0.022944075986742973,-0.01342838630080223,-0.00128783262334764,-0.0482899472117424,-0.014569839462637901,-0.03559091314673424,-0.002572390018031001,0.07517075538635254,-0.009833035990595818,-0.023339735344052315,-0.054332949221134186,0.06454107910394669,-0.0374859943985939,-0.04941462725400925,-0.040628377348184586,0.015307333320379257,0.05425313487648964,-0.0041355243884027,0.011773825623095036,-0.03766962140798569,0.01533474214375019,-0.017579590901732445,-0.005224232561886311,0.006327404174953699,0.01854821667075157,-0.07269737124443054,-0.03605660796165466,0.04899480566382408,0.006778570357710123,0.054983749985694885,0.0427667498588562,-0.06693386286497116,-0.012997074984014034,0.025958571583032608,-0.029621463268995285,0.0010691492352634668,-0.02681216597557068,0.07216905057430267,0.03507484495639801,-0.023918073624372482,0.08594079315662384,0.028955858200788498,0.09151683002710342,0.09047791361808777,-0.01380560826510191,-0.04731607437133789,0.024708755314350128,0.02196299470961094,0.027929238975048065,-0.015206518582999706,0.018445488065481186,-0.016886398196220398,-0.013949589803814888,0.05783907696604729,-0.009542949497699738,-0.06142992898821831,-0.036633510142564774,-0.005118868313729763,-0.019914522767066956,0.0349886380136013,0.046566493809223175,-0.02463960088789463,-0.0388634018599987,-0.05277344211935997,0.007454725448042154,0.06262421607971191,0.05306713283061981,-0.007258607540279627,0.05682104080915451,-0.006894017104059458,0.07751123607158661,-0.008602730929851532,-0.014933980070054531,0.030948083847761154,0.03119782917201519,0.036565136164426804,0.018032092601060867,0.021216150373220444,-0.10089663416147232,-0.053323183208703995,0.01569763384759426,-0.09177673608064651,0.026629826053977013,0.0009606804815120995,0.0072473157197237015,-0.02437799610197544,0.04252607375383377,0.002300082938745618,-0.0329582542181015,-0.0731377825140953,-0.010679873637855053,0.04232369735836983,0.00524645671248436,-0.039956845343112946,-0.008904829621315002,0.07377113401889801,0.06427688896656036,0.03956851735711098,-0.03318959102034569,0.05139694735407829,0.02851550281047821,0.05656473711133003,0.02832334116101265,-0.002216947730630636,0.031491562724113464,0.018582526594400406,0.04703197628259659,-0.06838241964578629,0.00396283995360136,0.06469839811325073,-0.02220926806330681,0.0016575140180066228,-0.09606228023767471,0.08676286786794662,-0.00473419763147831,-0.07638358324766159,0.04168740287423134,0.04485812038183212,0.05583544075489044,0.04359619319438934,-0.08872730284929276,-0.027042696252465248,-0.03185895457863808,-0.012738642282783985,-0.01898016780614853,0.06753411889076233,-0.08665410429239273,0.04918225482106209,0.07626229524612427,-0.051604676991701126,-0.06694649159908295,-0.03973621875047684,-0.01714245229959488,-0.07253022491931915,0.019026000052690506,-0.00895820464938879,0.053859319537878036,0.004914968274533749,0.008608958683907986,-0.03451606631278992,0.01461328286677599,0.01869494467973709,-0.031175147742033005,0.05398720130324364,0.026292709633708,0.02550138533115387,0.030298685654997826,-0.005114408675581217,0.02914351224899292,-0.06657141447067261,0.07735759764909744,0.11040061712265015,-0.026950791478157043,0.0037814180832356215,0.0707453191280365,0.016239561140537262,0.012672480195760727,-0.019351353868842125,0.04902297630906105,-0.03553403168916702,-0.03736329451203346,0.01064718421548605,0.05238199606537819,0.028388166800141335,-0.026224449276924133,0.03614421561360359,0.0028187616262584925,0.028523249551653862,0.03739800304174423,0.018045250326395035,-0.011160394176840782,0.02375199645757675,0.03936583176255226,0.06924941390752792,0.008513583801686764,-0.046853359788656235,0.05341954901814461,-0.016990765929222107,-0.04062209278345108,-0.06270924210548401,0.03856559842824936,0.08047156780958176,-0.06970901042222977,-0.0769713744521141,-0.09470482915639877,-0.05869565159082413,0.031953420490026474,0.017755841836333275,-0.05066792666912079,0.0021187830716371536,0.03978137671947479,-0.04173486307263374,-0.05300002545118332,0.015829233452677727,-0.06643081456422806,0.06023869290947914,-0.03259963542222977,0.01739944890141487,-0.02277728170156479,-0.09897138923406601,0.10498243570327759,0.019075673073530197,-0.05440157651901245,-0.016950875520706177,0.009068065322935581
dung,0.0387384295463562,0.05251191556453705,-0.018053121864795685,0.027596374973654747,0.02788912132382393,-0.02954668179154396,0.00614794809371233,0.041976023465394974,-0.0345049649477005,0.06576113402843475,0.06107356771826744,0.004420980345457792,-0.041680604219436646,0.02456134557723999,0.02921823039650917,-0.038283124566078186,0.004932338371872902,0.05875146761536598,-0.0485803559422493,0.032027341425418854,0.026686137542128563,0.006361141800880432,0.018841370940208435,-0.05192124471068382,-0.01142422016710043,-0.07560558617115021,0.02282857708632946,-0.011293267831206322,0.02576516754925251,-0.07280656695365906,0.03632011637091637,0.0061830454505980015,0.009259119629859924,0.024636343121528625,0.04707401245832443,-0.02934839576482773,-0.08059591799974442,-0.052070021629333496,-0.017323248088359833,-0.008168690837919712,-0.05070146918296814,-0.013955622911453247,0.009386301971971989,-0.00836914498358965,-0.0013338708085939288,0.04188442975282669,-0.04036446660757065,-0.002668642671778798,-0.0068075284361839294,0.026902927085757256,0.04385344684123993,-0.055130477994680405,0.0780021920800209,0.039418984204530716,0.00616152910515666,-0.03511907160282135,-0.014648273587226868,0.014898860827088356,-0.03771527484059334,0.008033660240471363,0.001047808676958084,0.021761756390333176,0.006424610037356615,0.050440121442079544,0.014953484758734703,-0.07541865110397339,-0.03291897103190422,-0.07058648765087128,0.06548323482275009,0.011207826435565948,-0.0467749647796154,0.008326699957251549,-0.05562833324074745,-0.04157300665974617,0.056138042360544205,-0.0009464886970818043,-0.0001798806042643264,-0.04683289676904678,0.047916121780872345,0.077837273478508,0.012202522717416286,0.011997637338936329,-0.07668140530586243,-0.03782329708337784,0.034027907997369766,0.03583444282412529,0.0312841422855854,0.03794592618942261,-0.0018298954237252474,0.03295823931694031,-0.05141356959939003,-0.012400275096297264,0.0159772876650095,-0.06903678923845291,-0.011698538437485695,0.042298346757888794,-0.02396819181740284,0.055401261895895004,0.0055775404907763,0.02202870137989521,0.04620939865708351,0.05031505227088928,0.025732170790433884,0.02158324234187603,0.030240628868341446,0.01694217137992382,-0.028062790632247925,-0.008711331523954868,0.002645864151418209,-0.005627977196127176,0.014294756576418877,-0.017119150608778,0.02065809816122055,-0.08391152322292328,-0.03376775234937668,-0.0038194565568119287,0.003442182205617428,-0.012498840689659119,-0.09121162444353104,0.031005702912807465,-0.02852291241288185,0.014343304559588432,-0.06415878981351852,0.04691479355096817,-0.019010256975889206,-0.03471413627266884,0.050627924501895905,-0.10874385386705399,-0.016781562939286232,0.031603358685970306,-0.0330769345164299,0.00040252108010463417,0.052580419927835464,-0.06836678832769394,0.049495305866003036,0.03112904354929924,0.04942002892494202,0.015913225710392,-0.008070175535976887,0.026470469310879707,0.06728704273700714,0.04411875084042549,-0.01439068466424942,-0.004323275294154882,-0.022122276946902275,0.062042348086833954,-0.033612389117479324,0.057839035987854004,-0.03429855778813362,0.015854276716709137,-0.02204078622162342,0.022266989573836327,-0.08945263922214508,0.018977075815200806,0.03538971021771431,-0.045568402856588364,-0.07143992185592651,0.044958170503377914,-0.05230759084224701,-0.04303623363375664,0.04699406400322914,0.013364995829761028,0.043260905891656876,0.05446406826376915,-0.010128681547939777,-0.023529859259724617,-0.041316233575344086,0.04115952178835869,-0.03519727289676666,0.01218100730329752,-0.041724082082509995,-0.0353565588593483,0.015625111758708954,-0.031072182580828667,-0.044479142874479294,0.014218206517398357,-0.05960496515035629,0.01858072355389595,-0.08603330701589584,0.0047125970013439655,-0.034873250871896744,-0.03961927443742752,0.0012121394975110888,-0.025258120149374008,0.08266443759202957,-0.013118530623614788,0.04299448803067207,-0.055758021771907806,-0.033568352460861206,0.04698567092418671,-0.05398845300078392,0.07654759287834167,0.10571322590112686,-0.041365522891283035,0.013345282524824142,0.019922664389014244,-0.05325242504477501,-0.10390698164701462,0.06702090799808502,-0.09703653305768967,0.058163177222013474,0.015243948437273502,0.03997071832418442,-0.06747414916753769,0.023391786962747574,-0.03922182694077492,-0.02391800284385681,-0.009818028658628464,-0.0247091855853796,0.10095780342817307,-0.06131942197680473,0.018145956099033356,-0.039575863629579544,-0.09064558893442154,-0.05973152816295624,0.048536647111177444,0.04081689193844795,0.012161899358034134,-0.014305521734058857,0.02777865156531334,0.03353126719594002,0.09270283579826355,0.07786806672811508,0.11738535761833191,0.08037320524454117,-0.02895876206457615,0.013296203687787056,-0.012743956409394741,-0.0523492768406868,0.005373010877519846,0.01664617285132408,-0.023577334359288216,0.010256956331431866,-0.06150895357131958,-0.008945903740823269,0.002153392881155014,-0.03654768317937851,0.03723529726266861,0.0554342158138752,0.037558797746896744,-0.02843690663576126,-0.052354227751493454,-0.03639501705765724,-0.009275851771235466,0.030541619285941124,0.03942522779107094,-0.03631135821342468,-0.06502989679574966,0.08232630044221878,0.026924749836325645,-0.03823801502585411,0.034231483936309814,0.04289381578564644,0.011067287996411324,0.004683785606175661,-0.011101162992417812,-0.03446585685014725,0.11187929660081863,0.007748875301331282,0.030866095796227455,0.023761944845318794,0.008478058502078056,0.058360107243061066,-0.022791851311922073,0.04570390284061432,-0.08432795852422714,-0.04295055940747261,0.04465949907898903,0.012743606232106686,-0.03661729767918587,0.026418639346957207,-0.0173414908349514,0.0034905101638287306,-0.01672416552901268,0.02413836307823658,0.05862283706665039,-0.011517847888171673,-0.02921062521636486,-0.019992336630821228,0.06874804198741913,-0.018346672877669334,0.027555905282497406,-0.06683923304080963,-0.038243167102336884,-0.007797988131642342,0.025204064324498177,0.04319300875067711,0.037656575441360474,-0.07268831878900528,-0.0025347750633955,0.003107978729531169,-0.00943661481142044,0.061977606266736984,-0.009100327268242836,-0.010908770374953747,0.014424457214772701,-0.01963825710117817,-0.02760442905128002,-0.002251280704513192,-0.043975502252578735,0.036513593047857285,0.0581589974462986,-0.024824757128953934,-0.051036812365055084,0.0634705200791359,-0.041330486536026,0.07477162033319473,-0.009513633325695992,-0.05598791688680649,-0.03574072942137718,-0.08450862020254135,0.0004421764169819653,-0.004996015224605799,0.038746427744627,0.11681172251701355,-0.0005815023905597627,-0.01237223669886589,-0.06392880529165268,-0.003081238828599453,-0.04942886903882027,-0.012198123149573803,-0.04569723829627037,-0.0010075896279886365,-0.008758227340877056,0.024428870528936386,-0.029531482607126236,-0.036359138786792755,0.04536658897995949,-0.013038630597293377,0.03722449019551277,-0.0020040892995893955,0.10925764590501785,-0.09399350732564926,0.030070122331380844,-0.004830075893551111,0.08977802097797394,-0.0018891976214945316,6.722461694153026e-05,-0.0891922265291214,-0.005803890060633421,0.02290312759578228,-0.014226672239601612,0.014337016269564629,0.047285959124565125,0.05261543393135071,0.036647580564022064,-0.005663919262588024,0.06424608826637268,0.021062590181827545,0.030189156532287598,-0.008464560844004154,-0.0266411155462265,0.013865670189261436,0.020689290016889572,0.01864227093756199,0.0460825115442276,-0.010746682062745094,0.03659413382411003,-0.008747045882046223,-0.022579027339816093,0.012936732731759548,-0.013070936314761639,-0.06840229779481888,-0.013525567017495632,-0.031249748542904854,0.03123069740831852,-0.011674722656607628,0.057342611253261566,-0.0025105110835283995,-0.03099062293767929,-0.02984541654586792,-0.02717098407447338,0.0337945781648159,0.07392749935388565,-0.031150100752711296,0.06104996055364609,-0.057732194662094116,0.04224405437707901,-0.08249411731958389,0.020434601232409477,0.007541736122220755,0.049842339009046555,-0.03816699981689453,-0.011331714689731598,0.024384047836065292,-0.06761007755994797,0.014356533996760845,0.04194014519453049,-0.051519036293029785,0.05019859969615936,-0.007335706148296595,-0.02393648587167263,-0.0769365131855011,0.04853776842355728,-0.01613192819058895,-0.048938143998384476,-0.07325857132673264,0.030552787706255913,0.04255243390798569,-0.007629028987139463,-0.03559751436114311,-0.017680061981081963,0.05822659283876419,-0.04936983063817024,-0.0035987761802971363,0.06326356530189514,-0.010323054157197475,-0.026305556297302246,0.030838968232274055,-0.040542252361774445,0.015544191934168339,0.05307452380657196,-0.028332654386758804,-0.009708220139145851,-0.07221529632806778,-0.04198499768972397,0.014638430438935757,0.04838337004184723,-0.01931867003440857,-0.026442652568221092,0.06501495838165283,-0.0042986939661204815,-0.04414689913392067,0.03924529626965523,0.07697311043739319,0.060368217527866364,0.026128113269805908,-0.042398639023303986,0.07929027080535889,-0.05489354953169823,-0.11258666962385178,-0.014896969310939312,0.0542319193482399,-0.13512884080410004,-0.004425140097737312,-0.030253173783421516,-0.0884481891989708,-0.08922457695007324,-0.07629770040512085,-0.027271071448922157,-0.021967139095067978,-0.011194339953362942,-0.028700700029730797,0.03240353614091873,-0.050103187561035156,-0.007891652174293995,0.01967375911772251,0.04395255818963051,-0.07160484790802002,-0.05838220193982124,0.06087023764848709,-0.029873421415686607,0.05388713628053665,-0.0006639029597863555,-0.06253664940595627,-0.04265985265374184,0.011999696493148804,0.0820033848285675,0.07348809391260147,0.02771857939660549,-0.02831551991403103,0.11395063996315002,0.07407484203577042,0.05495796352624893,-0.0013332109665498137,0.07949437946081161,0.03925895318388939,-0.04178586229681969,0.004928235430270433,-0.009775473736226559,-0.017471080645918846,-0.02654511295258999,0.015378284268081188,-0.05204220861196518,-0.06507540494203568,0.02310577780008316,-0.014396530576050282,-0.004868797026574612,0.07236737012863159,-0.051225461065769196,0.005742940120398998,-0.0015454996610060334,-0.0164555162191391,-0.00043945744982920587,0.006173169240355492,-0.049220576882362366,-0.0013199340319260955,0.04039333015680313,0.04334467649459839,-0.07741328328847885,-0.03656700253486633,-0.07592497020959854,0.02212543785572052,0.022151874378323555,0.010380318388342857,-0.047771748155355453,0.047491446137428284,-0.028334077447652817,-0.02939470484852791,-0.0322197787463665,-0.0033079669810831547,-0.012455335818231106,-0.0007151761092245579,-0.035260844975709915,-0.04288811236619949,0.04280855879187584,0.02133939228951931,0.0410364605486393,-0.002892196411266923,-0.12721429765224457,-0.034575577825307846,-0.004644408822059631
dung,0.03079776093363762,0.051621295511722565,-0.00964498519897461,0.09053201973438263,0.05333436653017998,-0.03320418298244476,-0.03056798130273819,0.008318816311657429,-0.02240367792546749,0.05773627385497093,0.07820280641317368,-0.0015037677949294448,-0.017723893746733665,-0.019474875181913376,0.028188511729240417,-0.02186538651585579,0.03680992126464844,0.06649109721183777,-0.03351854160428047,0.04616674408316612,0.051827628165483475,0.0013523828238248825,-0.0026032899040728807,-0.009327580220997334,-0.02866634540259838,-0.042695388197898865,0.06086296588182449,0.03270985186100006,0.04824543744325638,-0.03957106173038483,0.01807713322341442,0.024523695930838585,-0.008370316587388515,0.009324922226369381,0.0389593280851841,-0.0545838326215744,-0.0732947513461113,-0.07825213670730591,-0.044555891305208206,0.011584179475903511,-0.06087920442223549,-0.00024157072766683996,0.03443993255496025,-0.04444614797830582,-0.02015809714794159,0.060464031994342804,0.015856711193919182,0.015215828083455563,0.002854772610589862,0.04521159455180168,0.04133131727576256,-0.025992294773459435,0.12492247670888901,0.04910742864012718,0.05908531695604324,-0.05753730237483978,0.019820094108581543,0.046455781906843185,0.0002761248033493757,0.036106932908296585,0.014183757826685905,0.005777688696980476,0.005309117957949638,0.01674065552651882,0.024068349972367287,-0.032869379967451096,-0.042983997613191605,-0.049240101128816605,0.03797680139541626,0.00602966733276844,-0.028334137052297592,0.029170338064432144,-0.06608320027589798,0.005970848724246025,0.06214916333556175,-0.003292623208835721,-0.030360423028469086,-0.029270371422171593,0.01378475222736597,0.07512253522872925,0.017963673919439316,-0.003672214224934578,-0.04956256225705147,-0.019098494201898575,0.013409850187599659,-0.009768572635948658,0.027288716286420822,0.05305140092968941,0.01649029366672039,0.027514643967151642,-0.034316908568143845,0.028206489980220795,0.019516287371516228,-0.033516544848680496,0.0004834106657654047,0.0742059201002121,0.008895551785826683,0.07075773179531097,0.016301529482007027,0.043454475700855255,-0.015213713981211185,0.014682900160551071,-0.0035110218450427055,0.001555099617689848,0.020455753430724144,-0.0014790036948397756,-0.027759108692407608,-0.02757680043578148,0.013040449470281601,0.04375791177153587,0.04748532921075821,-0.01073381770402193,-0.03379352390766144,-0.072844959795475,-0.033995553851127625,0.01758539117872715,0.01595577970147133,-0.014972575940191746,-0.09848122298717499,0.05769311264157295,-0.009928538464009762,0.04749467968940735,-0.051174260675907135,0.0017746954690665007,0.015391623601317406,-0.020863547921180725,0.06383712589740753,-0.12478046864271164,-0.010631185956299305,0.015873463824391365,-0.0222544614225626,0.009335248731076717,0.0884416401386261,-0.050037167966365814,-0.005832966882735491,0.04233168810606003,-0.0010583464754745364,0.02625153586268425,0.00407598540186882,0.021538520231842995,0.06599174439907074,0.012259885668754578,-0.017928091809153557,-0.009456590749323368,0.009606725536286831,0.06404928863048553,-0.05353671312332153,0.03558337315917015,0.007075161207467318,0.0020429075229912996,0.012348225340247154,0.061034224927425385,-0.07940781116485596,0.06824763864278793,0.0032038826029747725,-0.06563232839107513,-0.08799318224191666,0.03207732364535332,-0.05161627009510994,-0.045494068413972855,0.05527974292635918,0.008781098760664463,0.050090812146663666,0.08559820055961609,-0.02673802338540554,-0.01706717163324356,-0.03584815189242363,0.019822625443339348,-0.03097124956548214,0.010394985787570477,-0.028786208480596542,-0.023393601179122925,0.03539937362074852,-0.05492939427495003,-0.03136651590466499,0.025321461260318756,-0.03405721113085747,0.03353160247206688,-0.061842478811740875,-0.039851199835538864,-0.06406427919864655,-0.03514820337295532,-0.025885969400405884,-0.0320756658911705,0.05096869543194771,0.029551232233643532,0.023069094866514206,-0.0355738140642643,-0.04604005441069603,0.06740561872720718,-0.060142241418361664,0.0845564603805542,0.11348596960306168,-0.046504393219947815,-0.022304855287075043,0.0210395660251379,-0.04874925687909126,-0.10860248655080795,0.036385804414749146,-0.10094662010669708,0.05451589077711105,0.010707574896514416,0.026373304426670074,-0.050873663276433945,0.023479526862502098,-0.0454656146466732,-0.035048045217990875,-0.026444926857948303,-0.06817325949668884,0.0892614871263504,-0.049558334052562714,0.024262037128210068,-0.030350064858794212,-0.04044950380921364,-0.037943970412015915,0.09103810787200928,0.039906058460474014,0.03228450566530228,-0.049833931028842926,0.0058295996859669685,0.011768546886742115,0.03023793362081051,0.03533203899860382,0.06960921734571457,0.06133219227194786,-0.014489804394543171,0.005255153868347406,0.035869721323251724,-0.011355656199157238,0.03273237496614456,0.042246270924806595,-0.049373921006917953,0.03179706633090973,-0.08936762809753418,-0.009083883836865425,0.004327868111431599,-0.06492089480161667,0.09087321907281876,0.05816107988357544,0.015686197206377983,-0.025133997201919556,-0.010061540640890598,-0.02271256223320961,-0.014423434622585773,0.0553959384560585,0.04877721145749092,-0.04282144829630852,-0.0475257933139801,0.09786173701286316,0.009406655095517635,-0.05431842431426048,0.021871479228138924,0.053276821970939636,0.00527240801602602,0.023233383893966675,0.021576430648565292,-0.03839069977402687,0.09665004909038544,0.05318814143538475,0.019014853984117508,-0.020876673981547356,-0.032979127019643784,0.059644319117069244,-0.04423930123448372,0.033540863543748856,-0.14959141612052917,-0.06651598960161209,0.08313480019569397,0.016258928924798965,-0.0404486209154129,0.04627672955393791,0.014407054521143436,0.026945436373353004,0.011783338151872158,0.01940603367984295,0.04976625367999077,-0.024793699383735657,0.029857730492949486,-0.03743937611579895,0.08747566491365433,-0.016295358538627625,0.025463059544563293,-0.0726463571190834,-0.02289118431508541,-0.018882088363170624,0.018136702477931976,0.03776663914322853,0.00826249923557043,-0.11238037794828415,-0.012064874172210693,-0.006017936859279871,0.0009049922227859497,0.04587383568286896,0.009159008041024208,-0.00593477813526988,0.0001549510343465954,0.00940446462482214,-0.030121292918920517,0.011212100274860859,-0.05175439268350601,0.07727722823619843,0.031158966943621635,0.0002113191585522145,-0.023364994674921036,0.07199862599372864,-0.026184827089309692,0.0921982154250145,0.006431931164115667,-0.0566224530339241,-0.04688792675733566,-0.062434423714876175,0.013694624416530132,-0.007581126410514116,0.058716900646686554,0.10235626995563507,0.04049815982580185,-0.00902615301311016,-0.06114238500595093,0.038494519889354706,-0.041057150810956955,0.005937664303928614,-0.052679210901260376,0.001334790955297649,0.027483221143484116,0.027623560279607773,-0.044985830783843994,-0.024403847754001617,0.053944896906614304,-0.01589328981935978,0.061749398708343506,0.003541831159964204,0.10508115589618683,-0.046380262821912766,-0.009336894378066063,-0.021083161234855652,0.08075787127017975,-0.01644458994269371,-0.022752562537789345,-0.073552206158638,0.020813042297959328,0.04294731840491295,-0.021484605967998505,-0.015252310782670975,0.030864158645272255,0.09950605779886246,0.00016547381528653204,-0.027085818350315094,0.09873224794864655,0.056069694459438324,0.026733053848147392,0.004174311179667711,-0.02534095011651516,-0.02583150938153267,0.03617067635059357,-0.007622168865054846,0.05429994314908981,0.01619848608970642,0.05953048914670944,0.015028982423245907,0.018096426501870155,0.008526074700057507,-0.010763679631054401,-0.08477820456027985,-0.05226650461554527,-0.0389089360833168,0.030297674238681793,-0.07614460587501526,0.015825970098376274,-0.014785346575081348,-0.019739974290132523,-0.017432235181331635,-0.008145865984261036,-0.028608089312911034,0.037670254707336426,0.012711568735539913,0.08584550768136978,-0.04328126832842827,0.015794821083545685,-0.08348444849252701,0.010137096047401428,-0.03368694707751274,0.034550223499536514,-0.02549177035689354,-0.023292677477002144,0.00673045264557004,-0.05658341571688652,-0.008456000126898289,0.012256457470357418,-0.026733282953500748,0.03412701562047005,-0.02204669825732708,0.01310990285128355,-0.051411159336566925,0.030253857374191284,0.009796240366995335,-0.0451657809317112,-0.03478674218058586,0.06195949390530586,0.06983522325754166,-0.013697724789381027,-0.021660033613443375,0.010903870686888695,0.06720251590013504,-0.05025442689657211,-0.013449408113956451,0.016228793188929558,-0.006413302384316921,-0.0002493050997145474,0.011781536974012852,-0.01164123136550188,0.056774336844682693,0.03078749030828476,-0.01679992489516735,-0.010218104347586632,-0.07084424048662186,-0.030827555805444717,0.0021149604581296444,0.06633547693490982,-0.027141012251377106,0.0090026231482625,0.0747823566198349,-0.006242676638066769,-0.03188994154334068,0.06675826013088226,0.030641932040452957,0.05747604742646217,0.032710663974285126,-0.02588137798011303,0.06604146957397461,-0.041457220911979675,-0.10272146761417389,0.01583397574722767,0.04936031624674797,-0.09930921345949173,0.0040232171304523945,-0.017094457522034645,-0.0917230024933815,-0.09086594730615616,-0.041635170578956604,-0.03486711531877518,-0.006332273129373789,-0.0009035110706463456,-0.03464331850409508,0.02386786788702011,-0.04680829495191574,0.016948489472270012,0.013943041674792767,0.05243917554616928,-0.07606730610132217,-0.055381882935762405,0.04893094301223755,-0.0448044128715992,0.05662474036216736,0.007088644430041313,-0.020652376115322113,-0.008693290874361992,0.015635447576642036,0.0435258187353611,0.07471855729818344,0.024408292025327682,-0.033230725675821304,0.08120356500148773,0.017184095457196236,0.05173368752002716,0.013849678449332714,0.046092648059129715,0.037626009434461594,-0.07283332943916321,-0.0009764998685568571,-0.0005201920866966248,-0.0037859673611819744,-0.03567173704504967,0.00815011840313673,-0.04133731126785278,-0.051883116364479065,0.07002569735050201,-0.0009526674984954298,-0.0075802928768098354,0.07491504400968552,-0.016224324703216553,0.01734364964067936,0.01650923490524292,-0.008015532977879047,-0.01747800223529339,-0.01588631421327591,-0.09844530373811722,-0.014487787149846554,0.07098481804132462,0.018844997510313988,-0.08211514353752136,-0.03380349278450012,-0.03514686971902847,-0.001517763128504157,0.037340614944696426,0.04831990227103233,-0.03263840451836586,0.046002499759197235,0.0012702360982075334,-0.03240878880023956,-0.009901461191475391,-0.0123591972514987,-0.011332998983561993,0.01097201369702816,-0.04601404815912247,-0.05390438809990883,0.01909009739756584,0.009654965251684189,0.0077172527089715,0.03418789431452751,-0.0643584206700325,0.0013695951784029603,-0.0045499070547521114
dung,0.04650501534342766,0.06892772763967514,-0.019904419779777527,0.0694754496216774,0.06816843897104263,-0.02958603762090206,-0.00019044397049583495,0.011313799768686295,-0.014619001187384129,0.0643562525510788,0.04455243796110153,-0.03852158784866333,-0.04629959166049957,-0.012857805006206036,0.01835806854069233,-0.038117386400699615,0.04241957515478134,0.08610402047634125,-0.01773335039615631,0.0548250749707222,0.020296940580010414,0.021693851798772812,-0.0031254759524017572,0.030542878434062004,-0.024479862302541733,-0.018521040678024292,0.038445256650447845,0.03073984570801258,0.035005711019039154,-0.018071351572871208,0.00963963009417057,0.033835120499134064,0.00044942734530195594,-0.032442040741443634,0.08479513972997665,-0.06797747313976288,-0.0619269534945488,-0.07487419992685318,0.007207726128399372,0.01324557512998581,-0.08442024141550064,0.028032846748828888,0.021226754412055016,-0.030462345108389854,-0.018347809091210365,0.013386469334363937,-0.019650587812066078,0.03086218796670437,-0.0029290856327861547,0.06622488051652908,0.013089661486446857,-0.04751100018620491,0.09150130301713943,0.06931547075510025,0.0399494506418705,-0.028220849111676216,0.008814559318125248,0.014713088050484657,-0.0013436692534014583,0.005887310486286879,0.0362098328769207,0.03944755718111992,0.01329363975673914,-0.010879311710596085,0.009184041060507298,-0.05722339078783989,-0.016631828621029854,-0.04331190884113312,0.07568983733654022,0.027820022776722908,-0.013652714900672436,0.013660847209393978,-0.09673035889863968,0.002445574151352048,0.005464367568492889,0.012313829734921455,0.0017327617388218641,-0.030286088585853577,0.03671025112271309,0.06339102983474731,0.021001746878027916,0.02843756601214409,-0.07500944286584854,0.014207074418663979,0.028067685663700104,-0.011026238091289997,0.02341899648308754,0.024332178756594658,0.005552943330258131,-0.012095197103917599,-0.025868983939290047,-0.004158735275268555,0.06178061664104462,-0.039535291492938995,0.04359434172511101,0.06072216480970383,-0.04287973418831825,0.022254278883337975,0.004054888617247343,0.049378328025341034,-0.018444720655679703,0.04329166188836098,-0.023294944316148758,0.0008574100793339312,0.021918775513768196,0.022340035066008568,-0.05187283456325531,0.005302938167005777,0.02922752872109413,0.016385164111852646,0.04557003080844879,-0.02969994582235813,-0.02696872316300869,-0.08437531441450119,-0.06565198302268982,4.5082386350259185e-05,0.04019978642463684,0.00829094834625721,-0.10817395895719528,0.03015422448515892,-0.030120814219117165,0.02979179285466671,-0.016396818682551384,0.026164265349507332,-0.010053437203168869,0.006640796549618244,0.030017750337719917,-0.13012313842773438,-0.04138782620429993,0.06705424189567566,-0.054029449820518494,-0.007233433425426483,0.07034211605787277,-0.09916438907384872,0.00039593956898897886,0.020553750917315483,0.0032650562934577465,0.00039861651021055877,0.04266185313463211,0.03643255680799484,0.04960496351122856,-0.005443476140499115,-0.025759108364582062,-0.02223930135369301,-0.02504861354827881,0.07558225095272064,-0.04232671484351158,0.0069891284219920635,-0.01453215442597866,-0.01683870144188404,0.01679569110274315,0.029100559651851654,-0.05348212271928787,0.06598168611526489,-0.0013160648522898555,-0.04944960027933121,-0.07589836418628693,0.06504571437835693,-0.02249022200703621,-0.06446043401956558,0.030589109286665916,0.018531445413827896,0.021559806540608406,0.07978411763906479,-0.0016639202367514372,-0.03249416872859001,-0.01294327899813652,0.03605223447084427,-0.011795404367148876,0.013868833892047405,-0.04493628442287445,-0.021154150366783142,-0.015958424657583237,-0.04470546171069145,-0.015447801910340786,0.04046810418367386,-0.04178665205836296,0.06378205120563507,-0.041184160858392715,-0.03888769820332527,-0.08894696086645126,-0.030116910114884377,-0.024680638685822487,-0.037075772881507874,0.05662009119987488,0.006289743352681398,0.016679055988788605,-0.03644110634922981,-0.04524572938680649,0.06472557038068771,-0.026569923385977745,0.05687137693166733,0.10571465641260147,-0.03586485609412193,-0.010835779830813408,0.01059301570057869,-0.0728466659784317,-0.08995047956705093,0.04925819858908653,-0.05132604390382767,0.0562489852309227,0.050619713962078094,0.03127385675907135,-0.05021028220653534,0.0572199821472168,-0.019972044974565506,-0.04308906942605972,-0.03431939333677292,-0.07956311851739883,0.09386470913887024,-0.04373099282383919,-0.03193654492497444,-0.04473087564110756,-0.0542813241481781,-0.061473164707422256,0.08667703717947006,0.04362700879573822,0.018851682543754578,-0.06296923756599426,0.005020866170525551,0.03676567226648331,0.022741829976439476,0.056835200637578964,0.12017706781625748,0.025641312822699547,-0.027496086433529854,0.042772021144628525,0.022026438266038895,-0.0348510704934597,0.01847648248076439,0.06619105488061905,-0.04601943865418434,0.01958870328962803,-0.09055118262767792,0.0056004635989665985,0.0041488902643322945,-0.0754752904176712,0.0774400383234024,0.05143841728568077,0.024732649326324463,-0.025400131940841675,-0.045148953795433044,-0.024199599400162697,-0.003548173001036048,0.053954675793647766,0.020458625629544258,-0.027393680065870285,-0.034835442900657654,0.07255712896585464,0.04984351247549057,-0.04921776428818703,0.01659892499446869,0.03587344288825989,0.03148103877902031,0.008530688472092152,-0.011871272698044777,-0.028648244217038155,0.11215764284133911,0.0176906306296587,-0.0030431051272898912,-0.008643393404781818,-0.01513363141566515,0.11501502245664597,-0.04773278161883354,0.03372004255652428,-0.11924447119235992,-0.07237386703491211,0.0870627909898758,0.00950535386800766,-0.03037683106958866,0.030407726764678955,-0.04357680305838585,0.02444792352616787,0.03568826988339424,-0.003220374695956707,0.06154937669634819,-0.03295151889324188,0.02774454839527607,-0.05644115060567856,0.03104264661669731,-0.012904013507068157,0.03831305354833603,-0.06630627810955048,0.002914230804890394,-0.02151515521109104,-0.01611405611038208,0.055128175765275955,0.023226788267493248,-0.11337601393461227,-0.011379202827811241,-0.05045578256249428,-0.022137872874736786,0.01745111495256424,-0.0127378199249506,0.006050457246601582,-0.018855417147278786,-0.008579520508646965,-0.04011984169483185,-0.010083046741783619,-0.07466983795166016,0.04611440375447273,0.032685536891222,-0.008681433275341988,-0.03855801001191139,0.05611465126276016,7.97701213741675e-05,0.05754030495882034,0.011786432936787605,-0.05394010245800018,-0.015264051966369152,-0.0472831092774868,0.008096002973616123,-0.0009443773305974901,0.05944948270916939,0.08159710466861725,0.049868252128362656,-0.03152179345488548,-0.022406870499253273,0.012105006724596024,-0.06979644298553467,-0.002324119210243225,-0.02637043595314026,0.046361349523067474,0.043312616646289825,-0.0024729326833039522,0.008435767143964767,-0.048514578491449356,0.04609912633895874,-0.033433277159929276,0.018080389127135277,-0.013482913374900818,0.08204415440559387,-0.06114654615521431,0.04164447262883186,-0.003035514848306775,0.052316032350063324,-0.014772997237741947,-0.0100224819034338,-0.06791488826274872,0.003370658028870821,0.049061600118875504,0.021404458209872246,-0.010177438147366047,0.0015219443012028933,0.06654361635446548,0.005827272776514292,-0.008562842383980751,0.08737644553184509,0.04121971130371094,0.015851963311433792,-0.024679236114025116,0.015279526822268963,-0.03127022087574005,0.002926425077021122,-0.00894108135253191,0.03953305631875992,0.043287478387355804,0.01653183251619339,0.05223555490374565,-0.004180575255304575,-0.005407522898167372,0.03895788639783859,-0.05856182798743248,-0.028672367334365845,-0.045435015112161636,0.06019037589430809,-0.043300777673721313,0.013461500406265259,0.012299115769565105,-0.003951852675527334,-0.059062812477350235,0.013546781614422798,0.002977559110149741,0.04429804906249046,-0.002753445180132985,0.10826250165700912,-0.06924067437648773,0.033247340470552444,-0.03259703889489174,-0.017498645931482315,0.03662164881825447,0.022381464019417763,-0.03825938701629639,0.008670954033732414,0.025944329798221588,-0.02449631132185459,0.012698505073785782,0.027251530438661575,-0.038263000547885895,0.036629628390073776,-0.015628505498170853,0.019108274951577187,-0.06075894832611084,0.023909853771328926,-0.0009462819434702396,-0.03338325396180153,-0.05500957369804382,0.030643362551927567,0.056041643023490906,-0.01810292899608612,-0.024175306782126427,-0.029357964172959328,0.01636544056236744,-0.031235508620738983,0.006885651033371687,0.012980476953089237,-0.03856157138943672,-0.025441715493798256,0.04313289374113083,-0.056346576660871506,0.040099456906318665,0.05121955648064613,-0.0269640926271677,-0.0438324436545372,-0.05836721137166023,-0.024818360805511475,0.015418436378240585,0.03055655211210251,-0.004906213376671076,0.018907029181718826,0.0877009704709053,-0.038829464465379715,-0.06293351948261261,0.07154384255409241,0.07769880443811417,0.043391887098550797,0.0629701092839241,0.0027283080853521824,0.02447274513542652,0.01332569494843483,-0.09309128671884537,-0.019220922142267227,0.0054612779058516026,-0.11237706243991852,0.007446483708918095,-0.021018631756305695,-0.07592270523309708,-0.09905732423067093,-0.03398364409804344,-0.038303423672914505,-0.030597655102610588,-0.038511596620082855,-0.07559815049171448,0.0259956493973732,-0.045409370213747025,0.0187832023948431,0.0051557328552007675,0.09360932558774948,-0.0670640617609024,-0.06034586951136589,0.0741063803434372,-0.01182838436216116,0.03181074559688568,-0.02970072627067566,-0.012579171918332577,-0.0349450558423996,-0.03265392407774925,0.06101711094379425,0.0663486197590828,0.036942947655916214,-0.03030083328485489,0.09982766956090927,-0.036039166152477264,0.09361211955547333,-0.003588462248444557,0.057301752269268036,0.04949742555618286,-0.07608672231435776,0.013047703541815281,-0.01731003262102604,-0.017509518191218376,-0.004176229238510132,-0.018638573586940765,-0.056490954011678696,-0.050541117787361145,0.05097747594118118,-0.023301584646105766,-0.006736472249031067,0.023881344124674797,-0.04577348381280899,0.01379091665148735,0.03191838786005974,0.013660542666912079,0.004555854015052319,-0.03354934602975845,-0.05253211408853531,-0.04665910452604294,0.0777166485786438,0.01860395260155201,-0.07800548523664474,0.026611270383000374,-0.046390946954488754,-0.017302734777331352,0.021628238260746002,0.040788717567920685,-0.04928328096866608,0.042522136121988297,-0.027370162308216095,-0.08720852434635162,-0.0324292927980423,0.011517947539687157,-0.00860538985580206,0.02724207192659378,-0.01278725452721119,-0.0032970267347991467,0.010095058009028435,-0.008869785815477371,0.05983193963766098,0.016983140259981155,-0.06328718364238739,-0.023127006366848946,-0.03543901443481445
dung,0.03639756888151169,0.04485207051038742,-0.015646595507860184,0.06520036607980728,0.06467115879058838,0.010227025486528873,-0.0228902418166399,0.017990436404943466,-0.04451613500714302,0.05134987458586693,0.056319426745176315,-0.005104615818709135,-0.08202902972698212,0.007597348652780056,0.06415663659572601,-0.041488856077194214,0.019331857562065125,0.08449125289916992,-0.055299874395132065,0.041698992252349854,0.00804904755204916,0.03593121096491814,0.046821024268865585,-0.021058151498436928,-0.04680629074573517,-0.03251151740550995,0.04482480138540268,0.02258417010307312,0.03596872091293335,-0.03600485250353813,0.02106309123337269,0.01902165450155735,-0.004444263409823179,0.005085250828415155,0.04775340110063553,-0.0290739256888628,-0.03876888379454613,-0.06995188444852829,-0.007117849308997393,-0.0004420850891619921,-0.02420423924922943,-0.012851127423346043,0.018389714881777763,-0.03622952848672867,0.02627638168632984,0.001331615843810141,-0.014258962124586105,0.022981062531471252,-0.03949461504817009,0.05216868966817856,0.02702135406434536,-0.03731565549969673,0.0995103120803833,0.06096627190709114,0.019677000120282173,-0.03334074467420578,-0.016265276819467545,0.0338875986635685,0.027768952772021294,0.00833663810044527,0.029407499358057976,0.02582130953669548,0.010343466885387897,0.021958032622933388,0.020736070349812508,-0.046540290117263794,-0.019130723550915718,-0.0652952790260315,0.058974333107471466,0.034110285341739655,-0.04652361944317818,0.030192211270332336,-0.056459326297044754,-0.02353290654718876,0.03432350978255272,-0.001532521448098123,-0.010868309065699577,-0.07946138083934784,0.023655463010072708,0.06233862042427063,0.05496947467327118,0.03484772890806198,-0.0732831209897995,-0.00894805695861578,0.04221131280064583,0.010803190059959888,0.008455358445644379,0.035113248974084854,-0.012096179649233818,0.0003361852141097188,-0.0025861950125545263,-0.002988321939483285,0.05912372097373009,-0.07320790737867355,0.001990065909922123,0.06165871396660805,-0.03134359046816826,0.08080333471298218,0.015532766468822956,0.007781556341797113,0.038110509514808655,0.03513253852725029,-0.010872398503124714,0.019971463829278946,0.017759336158633232,0.021840933710336685,-0.02357560209929943,-0.028186839073896408,-0.009340247139334679,-0.002376945922151208,0.032830238342285156,0.0029511533211916685,-0.021695539355278015,-0.08491473644971848,-0.01505893375724554,-0.0010821957839652896,0.013621733523905277,-0.036758773028850555,-0.0874890610575676,0.035159673541784286,-0.0410122349858284,0.03361472859978676,-0.0310696829110384,0.017174994572997093,-0.01071370579302311,-0.03579393029212952,0.052661146968603134,-0.12085393816232681,-0.03378845006227493,0.024648092687129974,-0.03739521652460098,-0.017029965296387672,0.06230982393026352,-0.07542397826910019,-0.027518345043063164,0.01752924919128418,0.009481639601290226,0.004944328684359789,0.020503690466284752,0.03904995694756508,0.05542819947004318,0.03431643173098564,-0.014477845281362534,0.03629060462117195,-0.008138264529407024,0.04809580370783806,-0.0337584987282753,0.028377266600728035,-0.0347466804087162,0.007527646142989397,-0.00939551554620266,0.04741467908024788,-0.09222661703824997,0.020014839246869087,0.03215999901294708,-0.060437750071287155,-0.1051366925239563,0.031896304339170456,-0.03685499355196953,-0.06787053495645523,0.06065766140818596,0.00028485755319707096,0.05024237930774689,0.07812533527612686,-0.015392662025988102,-0.00979899987578392,-0.06606808304786682,0.015989791601896286,-0.02932293713092804,0.00451017078012228,-0.049339767545461655,-0.04010270908474922,0.005574660375714302,-0.02790309302508831,-0.015869516879320145,0.04193105921149254,-0.04636117070913315,0.041205644607543945,-0.07684845477342606,0.0031014031264930964,-0.0792778953909874,-0.049460336565971375,-0.02370229735970497,-0.05238612741231918,0.0629454031586647,-0.03901532664895058,0.0328490287065506,-0.016809776425361633,0.001013505388982594,0.0575767382979393,-0.02192777208983898,0.06165293976664543,0.12396816909313202,-0.04195304960012436,0.0030085607431828976,0.00946416798979044,-0.045082397758960724,-0.0931357890367508,0.029063686728477478,-0.07510772347450256,0.053887028247117996,0.013893380761146545,0.0475713312625885,-0.0720258578658104,0.03631501644849777,-0.022952379658818245,0.001100592315196991,-0.018394073471426964,-0.045401349663734436,0.11611705273389816,-0.05319049209356308,0.01578887365758419,-0.03738965094089508,-0.06674069911241531,-0.07208216935396194,0.0633714497089386,0.035481732338666916,0.021322406828403473,-0.06538943946361542,0.019382359459996223,-0.011079966090619564,0.0431823767721653,0.055639076977968216,0.10015402734279633,0.0693620890378952,-0.01239719893783331,0.030053630471229553,-0.0001495858741691336,-0.04333184286952019,0.011967627331614494,0.06215567886829376,-0.031104251742362976,0.018908387050032616,-0.06129197031259537,-0.01004092674702406,-0.018146956339478493,-0.0380534827709198,0.07584796845912933,0.024868514388799667,0.02652237005531788,-0.04059242084622383,-0.05006255581974983,-0.014919662848114967,0.006694291718304157,0.04496178776025772,0.03814651444554329,-0.023727072402834892,-0.06130719929933548,0.05563920736312866,0.04971640929579735,-0.03857462480664253,0.019156768918037415,0.023922249674797058,0.008986270055174828,0.030952472239732742,-0.03356856852769852,-0.05344374105334282,0.11828912049531937,0.04149570316076279,0.025278041139245033,0.02423359826207161,-0.021201979368925095,0.10378138720989227,-0.05820629745721817,0.03480207175016403,-0.09310556203126907,-0.04025278240442276,0.07295583933591843,0.0010942047229036689,-0.06900053471326828,0.046385426074266434,-0.0065967314876616,0.01845765858888626,-0.005756094120442867,0.017353983595967293,0.039210304617881775,-0.02189801260828972,0.01571306772530079,0.007230670657008886,0.062169149518013,-0.015741432085633278,0.02834526263177395,-0.06950576603412628,-0.04504837840795517,-0.023677129298448563,0.00311134266667068,0.05113125964999199,0.056728873401880264,-0.06147313117980957,-0.02393599972128868,-0.017711857333779335,-0.001522272708825767,0.04017385095357895,0.01017353031784296,-0.029041850939393044,0.0060872724279761314,-0.019907087087631226,-0.03811591491103172,-0.01634233072400093,-0.06652405858039856,0.06574767082929611,0.04521990567445755,-0.015926379710435867,-0.02177760936319828,0.09964209794998169,-0.03233462944626808,0.06845767050981522,0.013432594016194344,-0.07659712433815002,-0.002106723142787814,-0.03611842542886734,0.021394778043031693,0.0016943641239777207,0.07926709949970245,0.10402069240808487,0.05519719049334526,-0.047611054033041,-0.0421745628118515,-0.009032545611262321,-0.028492553159594536,0.029750769957900047,-0.05176103487610817,0.015448917634785175,0.05657261610031128,0.02339392900466919,-0.04212636500597,-0.015462752431631088,0.04638339579105377,-0.02347569353878498,0.04702882841229439,0.014722853899002075,0.058046601712703705,-0.07569096982479095,0.020991530269384384,-0.023804189637303352,0.06996355205774307,-0.00430911174044013,0.004985380917787552,-0.05901345983147621,-0.022301658987998962,0.045181214809417725,-0.020380837842822075,-0.0025520070921629667,0.05060915648937225,0.0704658031463623,0.010849862359464169,-0.010342400521039963,0.07444912195205688,0.04647728428244591,0.028617097064852715,-0.019913427531719208,-0.04772108420729637,-0.02178611233830452,0.015839682891964912,-0.00013885361840948462,0.09135822206735611,0.012666597031056881,0.015920735895633698,0.014980114065110683,0.015661928802728653,-0.0033591855317354202,0.0012859378475695848,-0.07197515666484833,-0.010758951306343079,-0.04177934676408768,0.04175295680761337,-0.04289271682500839,0.03461051732301712,0.01251912210136652,-0.02239195629954338,-0.02501702681183815,-0.01913689449429512,-0.003901168005540967,0.050624459981918335,-0.009126834571361542,0.12325534969568253,-0.06208077445626259,0.02632763609290123,-0.03242725878953934,0.00579166179522872,0.0026495633646845818,0.024656105786561966,-0.02609137073159218,-0.008162287063896656,0.04651118442416191,-0.059754278510808945,0.03144756704568863,0.03243093192577362,-0.043577224016189575,0.03450779989361763,0.00016770645743235946,0.007783270440995693,-0.04932256042957306,0.021834706887602806,-0.013883634470403194,-0.033929817378520966,-0.057321567088365555,0.05154911428689957,0.04239777475595474,-0.0037806560285389423,-0.03873538225889206,-0.015786582604050636,0.050071898847818375,-0.04349565878510475,-0.011622199788689613,0.027120964601635933,-0.038759298622608185,-0.06258571147918701,0.04393206164240837,-0.012500327080488205,0.05307764187455177,0.035838741809129715,-0.013924233615398407,-0.012356135994195938,-0.04540537670254707,-0.04973285272717476,0.015496347099542618,0.05741921439766884,-0.011353323236107826,-0.04636892303824425,0.06151406094431877,-0.03780688717961311,-0.034016817808151245,0.03936517983675003,0.0480719730257988,0.05184422433376312,0.04970516636967659,0.00780797004699707,0.043481916189193726,-0.06311877071857452,-0.10638970881700516,0.026993755251169205,0.044640716165304184,-0.14695049822330475,-0.010614646598696709,-0.036519572138786316,-0.07754012942314148,-0.09582486003637314,-0.07135965675115585,-0.03264520317316055,-0.03832569718360901,-0.024984080344438553,-0.08163891732692719,0.03992500156164169,-0.08548025041818619,0.02233227528631687,0.006652449257671833,0.06871386617422104,-0.06420336663722992,-0.05683712288737297,0.07366529852151871,-0.026303140446543694,0.02477269433438778,-0.005437443032860756,-0.031821999698877335,-0.018121788278222084,-0.005140076391398907,0.05382208153605461,0.07679128646850586,0.03995458781719208,-0.04987495020031929,0.09472070634365082,0.008803796954452991,0.0865354910492897,-0.0007827337831258774,0.03420335799455643,0.049574509263038635,-0.052641063928604126,0.01613699644804001,0.024710126221179962,-0.019890209659934044,-0.0077133397571742535,0.01642046496272087,-0.06349899619817734,-0.05490713194012642,0.04028327390551567,0.004929429851472378,-0.003373553976416588,0.05345725268125534,-0.03530401736497879,0.014849318191409111,0.01802116632461548,-0.002725945319980383,0.009257705882191658,-0.009031030349433422,-0.04280519112944603,-0.035490017384290695,0.05118224769830704,0.05149953067302704,-0.08704143017530441,-0.02712656371295452,-0.059159982949495316,-0.013951621018350124,0.015628717839717865,0.01998959481716156,-0.054404448717832565,0.0584740974009037,-0.04053661599755287,-0.04292625933885574,-0.000913470343220979,-0.012733126059174538,0.014718136750161648,-0.021709730848670006,-0.024999214336276054,-0.043855443596839905,0.028850823640823364,0.018412401899695396,0.027644606307148933,0.003370442660525441,-0.07420933246612549,0.006516302935779095,-0.03514067083597183
dung,0.0438266284763813,0.0659208744764328,-0.024704808369278908,0.05537669360637665,0.03749440237879753,-0.09531832486391068,0.007507469039410353,0.01710127666592598,-0.030518578365445137,0.006117516662925482,0.04589349403977394,-0.06953617185354233,-0.004595782142132521,-0.03941373527050018,0.06212353706359863,0.02742963656783104,0.03584613278508186,0.0946192517876625,-0.05891760438680649,0.07579529285430908,0.01422604639083147,0.014963381923735142,-0.032555487006902695,-0.00837634690105915,-0.02358519285917282,-0.046952515840530396,0.026819074526429176,-0.004152302630245686,0.06576517969369888,-0.04549264535307884,-0.007593946531414986,0.046665191650390625,-0.019303249195218086,8.222003089031205e-05,0.04457634687423706,-0.06056373938918114,0.009727783501148224,-0.07312682271003723,-0.0021722542587667704,-0.014520871452987194,-0.03643057122826576,0.005587990861386061,0.060523372143507004,-0.04843992739915848,-0.03009812720119953,0.026334336027503014,-0.013647269457578659,0.010976258665323257,-0.01841936632990837,0.09089214354753494,0.02842971496284008,-0.013182749040424824,0.028001446276903152,-0.0029282711911946535,0.018038928508758545,-0.0667136162519455,-0.013568091206252575,-0.021721193566918373,0.01858951523900032,0.0043353792279958725,-0.0038479669019579887,0.08726033568382263,-0.022590532898902893,0.011488945223391056,-0.013730066828429699,-0.05177123844623566,-0.045418743044137955,-0.017700964584946632,0.06257276237010956,-0.00555657222867012,-0.03805544227361679,0.02357271872460842,-0.0881594568490982,-0.002125185914337635,0.05102270096540451,-0.0449676588177681,-0.005468092858791351,-0.04507254436612129,-0.0212172269821167,-0.01591818779706955,0.029358182102441788,0.00962010771036148,-0.0794689729809761,-0.036529529839754105,0.023000460118055344,-0.022845987230539322,0.03083418868482113,0.04063564911484718,-0.025131002068519592,0.016551537439227104,-0.013143707066774368,-0.00864799227565527,0.05519067868590355,-0.042680975049734116,-0.001553113805130124,0.04488678649067879,-0.016862859949469566,-0.01686464250087738,-0.030330555513501167,0.0165045615285635,-0.04777701944112778,0.04594194144010544,-0.027420297265052795,0.02013380266726017,-0.05101122334599495,-0.047006189823150635,-0.004516365472227335,-0.042098212987184525,0.0021925466135144234,0.07214631140232086,0.027290700003504753,-0.04174905642867088,-0.00765564851462841,-0.021675920113921165,-0.06310771405696869,-0.02395327016711235,0.023979773744940758,-0.002021889202296734,-0.0994018092751503,0.062175676226615906,-0.0005633351975120604,0.05443909764289856,-0.027202969416975975,-4.1923623939510435e-05,-0.011910167522728443,0.00895043183118105,0.08409268409013748,-0.11219111829996109,-0.029495621100068092,0.05000476911664009,-0.010697382502257824,-0.03303638845682144,0.04618716239929199,-0.057911813259124756,0.012714285403490067,0.022179434075951576,0.003411951009184122,-0.0375642254948616,0.02313179336488247,0.0221265759319067,0.06528054177761078,0.008717983961105347,-0.03317185863852501,0.01198005024343729,0.014489999040961266,0.04816430062055588,-0.01794835366308689,-0.01925298012793064,0.03849602863192558,-0.006715499330312014,0.032647375017404556,0.0020834908355027437,-0.03176746517419815,0.018748052418231964,0.051750119775533676,-0.06992899626493454,-0.09155236184597015,0.03539108484983444,-0.006934354547411203,-0.0018593021668493748,0.034661903977394104,-0.037604473531246185,0.021620146930217743,0.0981258898973465,-0.022428220137953758,-0.008359652012586594,-0.04767643287777901,0.02850199304521084,-0.02468278631567955,-0.059974439442157745,-0.03379835560917854,0.03541821613907814,-0.0026323222555220127,-0.009493333287537098,-0.005747753661125898,0.029410023242235184,-0.013024820014834404,0.07400872558355331,-0.03324892744421959,0.010176003910601139,-0.05672914907336235,-0.06161054968833923,-0.00816580094397068,-0.05409226939082146,0.04452665522694588,0.02847985550761223,0.0013892671559005976,-0.029749922454357147,-0.01631671003997326,0.08661075681447983,-0.02017001248896122,0.06040608882904053,0.08455074578523636,-0.021069886162877083,0.007220665458589792,0.03014471009373665,-0.08491247147321701,-0.06353525817394257,0.020160680636763573,-0.06982668489217758,0.04829052835702896,-0.006063262466341257,0.04062887653708458,-0.051061779260635376,0.04400740563869476,-0.024412596598267555,-0.0323861725628376,0.017305677756667137,-0.09376830607652664,0.09951242804527283,-0.003086603246629238,0.009424633346498013,0.005436515901237726,-0.026159489527344704,-0.05671017989516258,0.07189222425222397,0.040200185030698776,-0.02584126591682434,-0.06156037375330925,0.022653762251138687,0.06777054071426392,0.025265807285904884,-0.019610101357102394,0.10454482585191727,0.03274674341082573,-0.004956934601068497,0.041105855256319046,0.009707985445857048,-0.05045192316174507,0.028099365532398224,0.019412275403738022,-0.06325466185808182,0.03557497262954712,-0.11071661859750748,-0.03502333536744118,0.03377510979771614,-0.04921300336718559,0.1030830666422844,0.0859593078494072,0.0054199593141674995,0.0009309467859566212,-0.03897766023874283,-0.035130683332681656,-0.011627067811787128,0.006957517471164465,0.037291765213012695,0.007840447127819061,0.010929666459560394,0.05594275891780853,0.052226707339286804,-0.10491865873336792,-0.009022724814713001,0.007652787957340479,-0.02366829477250576,-0.016397787258028984,-0.013063338585197926,-0.014972533099353313,0.03865620866417885,0.022707674652338028,-0.022292401641607285,-0.04860991984605789,-0.01967920921742916,0.05062323436141014,-0.06448211520910263,0.07897492498159409,-0.11443839967250824,-0.13368570804595947,0.04021462798118591,0.013952591456472874,-0.075508713722229,0.04972698912024498,-0.0030329758301377296,0.08113087713718414,0.00411911541596055,0.0184174757450819,0.05230429768562317,-0.05335886776447296,-0.009300735779106617,0.0012264472898095846,0.10148985683917999,-0.06349826604127884,-0.012794599868357182,-0.02960062399506569,-0.022341288626194,0.0020887108985334635,-0.030725473538041115,0.03618853911757469,0.022110899910330772,-0.05836744233965874,0.011140268296003342,-0.08185756206512451,-0.006918204482644796,-0.002010975731536746,0.021343696862459183,0.025231558829545975,-0.0338432714343071,-0.02299792505800724,-0.06295707821846008,0.008719252422451973,-0.05525306239724159,0.020716236904263496,-0.0034414122346788645,0.020412124693393707,-0.046703752130270004,0.08607776463031769,0.024164732545614243,0.08179734647274017,-0.0222440455108881,-0.028296802192926407,-0.018909787759184837,-0.004677966702729464,0.08625772595405579,-0.026450414210557938,0.0191330686211586,0.08917827904224396,0.013526257127523422,-0.012189128436148167,-0.0272417850792408,0.009737894870340824,-0.08072330057621002,0.023391209542751312,-0.07866043597459793,0.01728050783276558,0.07516990602016449,0.006201394367963076,-0.02340323105454445,-0.057352736592292786,0.0754191055893898,-0.057414110749959946,-0.006515462417155504,-0.05523649975657463,0.051864489912986755,-0.0434609092772007,0.014707922004163265,-0.043816812336444855,0.08160823583602905,-0.010534183122217655,-0.07293615490198135,-0.036355648189783096,0.019019125029444695,0.008993235416710377,0.012787573970854282,-0.058355193585157394,0.024794025346636772,0.09880296885967255,0.02018131874501705,0.034316666424274445,0.0831001028418541,0.04403740167617798,0.04366804659366608,-0.02274024300277233,-5.82419233978726e-05,0.03603624552488327,0.05744653940200806,0.007173026446253061,0.04064716398715973,-0.0009499602019786835,0.026296639814972878,0.06025407090783119,0.0021986484061926603,0.010503817349672318,-0.002518013119697571,-0.06661305576562881,-0.047958847135305405,-0.03699642792344093,0.06481077522039413,-0.0677507296204567,-0.00927124172449112,-0.007813223637640476,-0.027594074606895447,-0.019491644576191902,-0.042553965002298355,-0.028551122173666954,0.03207604959607124,-0.025966471061110497,0.10128550976514816,-0.048995308578014374,0.022958319634199142,-0.08134061843156815,0.011131150647997856,-0.00404394930228591,0.032649848610162735,0.010235730558633804,0.030928950756788254,0.06614033877849579,-0.017782097682356834,-0.013366327621042728,0.06406490504741669,0.0001705541362753138,-0.01964496076107025,-0.023362746462225914,0.01779899187386036,-0.062470514327287674,0.03174799680709839,-0.013106233440339565,-0.04303016513586044,-0.025312839075922966,0.07594889402389526,-0.01964803971350193,-0.03767090290784836,0.019040575250983238,-0.032093845307826996,0.011916800402104855,-0.0008702566265128553,-0.03306416794657707,-0.03512703254818916,-0.04784374311566353,-0.015802090987563133,0.010817025788128376,-0.03238106518983841,0.03316308930516243,0.025306623429059982,-0.017496587708592415,0.0032595053780823946,-0.02745114080607891,-0.011401565745472908,0.018167585134506226,0.07647871226072311,-0.0026855163741856813,-0.002569533186033368,0.004455856513231993,-0.020246051251888275,-0.07475055009126663,0.036007802933454514,0.04663289338350296,0.029872773215174675,0.06671243160963058,0.00770495506003499,0.010477760806679726,0.041625939309597015,-0.12812009453773499,-0.017251145094633102,-0.005957019980996847,-0.1184459999203682,0.034814681857824326,0.04762202873826027,-0.053285159170627594,-0.09165862947702408,-0.023369209840893745,-0.047516368329524994,0.009860704652965069,0.010972724296152592,-0.02318674698472023,0.009285672567784786,-0.026457607746124268,-0.02308056689798832,0.09883052855730057,0.060781341046094894,-0.03962786868214607,0.012087935581803322,0.0006090451497584581,-0.0328882597386837,0.036592818796634674,-0.027770914137363434,-0.0110534792765975,-0.012353499419987202,0.01858636736869812,0.02449445240199566,0.016573907807469368,0.049561865627765656,0.0051401276141405106,0.09171599894762039,0.020058492198586464,0.03139857202768326,-0.015043914318084717,0.08113477379083633,0.08311297744512558,-0.07757467031478882,0.05141576752066612,0.033635806292295456,0.06297781318426132,0.04490518942475319,-0.014553992077708244,-0.04429260268807411,-0.02867538295686245,0.016803400591015816,-0.04529833421111107,0.03568032756447792,0.035310618579387665,-0.023749185726046562,-0.04159320518374443,-0.02759116142988205,0.04588548094034195,0.03900499269366264,-0.02165071666240692,-0.04307455196976662,-0.013643106445670128,0.04539044201374054,0.020901283249258995,-0.03589450195431709,0.027399543672800064,-0.0781668871641159,-0.00811677984893322,-0.01406336110085249,0.060406394302845,-0.0918186753988266,0.061888303607702255,-0.008518252521753311,-0.0345020554959774,-0.025398338213562965,-0.006595524027943611,-0.053424153476953506,-0.030642839148640633,-0.02062033675611019,-0.06214515119791031,0.06663944572210312,-0.01589474268257618,0.036068156361579895,0.03223162144422531,-0.043521855026483536,-0.000212303435546346,-0.020610051229596138
dung,0.032306745648384094,0.06656257808208466,0.0006889751530252397,0.07074534893035889,0.05676066502928734,-0.03240160644054413,-0.021467290818691254,-0.0010393626289442182,-0.025066614151000977,0.033686261624097824,0.08068554103374481,-0.011115757748484612,-0.024550842121243477,-0.02584480307996273,0.04205089434981346,-0.005852609872817993,0.04120326787233353,0.06622274965047836,-0.043385669589042664,0.047624241560697556,0.04887549579143524,-0.012224781326949596,0.002898061415180564,-0.015391696244478226,-0.03202153742313385,-0.029103372246026993,0.06374966353178024,0.02497926913201809,0.050376489758491516,-0.05021102726459503,0.015053631737828255,0.03610100597143173,-0.009395665489137173,0.01366619486361742,0.04647645354270935,-0.05228995159268379,-0.04802953824400902,-0.08466552197933197,-0.041618943214416504,0.0008847029530443251,-0.03371024504303932,-0.022669274359941483,0.02795582264661789,-0.05236159265041351,-0.030980797484517097,0.024598147720098495,0.006683146581053734,0.027285009622573853,-0.012217755429446697,0.047235820442438126,0.018835971131920815,-0.02692648582160473,0.09759484231472015,0.028202880173921585,0.05929099768400192,-0.055056218057870865,0.003435038961470127,0.03626590594649315,0.018807681277394295,0.046733610332012177,0.008614334277808666,0.03235914185643196,0.001915637869387865,0.04178881272673607,0.023124419152736664,-0.04375091567635536,-0.04078220576047897,-0.055975671857595444,0.03290970250964165,-0.007815908640623093,-0.032959017902612686,0.020542003214359283,-0.058173276484012604,0.009602279402315617,0.04818117618560791,-0.007003935985267162,-0.025467101484537125,-0.04084146395325661,0.017063161358237267,0.052697159349918365,0.027494676411151886,-0.006865642033517361,-0.07407596707344055,-0.004928820300847292,0.03901249170303345,-0.026012219488620758,0.03093692660331726,0.06673125177621841,0.012351647019386292,0.015046924352645874,-0.033762719482183456,0.023387756198644638,0.021712863817811012,-0.03736084699630737,0.011576770804822445,0.06449272483587265,-0.01697716861963272,0.06601674109697342,0.009882827289402485,0.027136387303471565,-0.005352183245122433,0.021176733076572418,-0.031470347195863724,0.028002476319670677,0.013687973842024803,-0.01042600255459547,-0.002525687450543046,-0.02517617680132389,0.019130971282720566,0.04061199352145195,0.04495548456907272,-0.01495596207678318,-0.03290322795510292,-0.059768740087747574,-0.048501353710889816,0.006678177043795586,0.005857663694769144,-0.01832246407866478,-0.08852013200521469,0.06144818663597107,-0.0014448589645326138,0.03517056256532669,-0.04778428375720978,-0.0014125783927738667,-0.003653014777228236,-0.019059890881180763,0.0886172279715538,-0.12926742434501648,-0.020282266661524773,0.021543364971876144,-0.031043503433465958,0.006310653407126665,0.0832957774400711,-0.06613550335168839,-0.013455568812787533,0.04620296135544777,0.004508342128247023,0.007671363651752472,-0.0030265203677117825,0.022458473220467567,0.08142738044261932,-0.002135212766006589,-0.029378533363342285,-0.00256615923717618,-0.008632802404463291,0.03237949311733246,-0.05746583268046379,0.029833894222974777,0.014114550314843655,-0.0021293305326253176,0.025304947048425674,0.06810056418180466,-0.06257510185241699,0.04354637488722801,0.02355373464524746,-0.05628830939531326,-0.09629885107278824,0.021584706380963326,-0.04639248177409172,-0.030688859522342682,0.05709375813603401,0.0042742337100207806,0.060768187046051025,0.09145170450210571,-0.03434700891375542,-0.02278229035437107,-0.03440924733877182,0.04017839953303337,-0.04019841551780701,-0.0023417379707098007,-0.030495459213852882,-0.017986958846449852,0.01418386958539486,-0.06345696747303009,-0.02936403639614582,0.031191328540444374,-0.04954496771097183,0.036425650119781494,-0.04887910932302475,-0.018579639494419098,-0.06793943047523499,-0.03086875006556511,-0.024179495871067047,-0.030235707759857178,0.04081892967224121,0.014802439138293266,0.003725683083757758,-0.014811932109296322,-0.04266851767897606,0.0804491713643074,-0.053672995418310165,0.08420977741479874,0.10386734455823898,-0.06799446791410446,-0.0046332040801644325,0.021539485082030296,-0.053085166960954666,-0.0968269407749176,0.03219065070152283,-0.1063229888677597,0.06164003536105156,-0.011283893138170242,0.03710634261369705,-0.04876863211393356,0.022739022970199585,-0.04010314121842384,-0.04436236247420311,-0.011920573189854622,-0.07718228548765182,0.09021661430597305,-0.04309824854135513,0.01655796356499195,-0.021110452711582184,-0.04242374375462532,-0.0524589829146862,0.06510103493928909,0.04025530815124512,0.040870726108551025,-0.05666784569621086,0.01627618819475174,0.008628826588392258,0.03927425667643547,0.026708463206887245,0.07207966595888138,0.06518631428480148,-0.00038923294050619006,0.015051905997097492,0.03239891678094864,-0.045310840010643005,0.024845410138368607,0.03370814770460129,-0.053005483001470566,0.01331414096057415,-0.09656617045402527,-0.01016177237033844,-0.0007323762401938438,-0.049662038683891296,0.0950404480099678,0.05766870453953743,0.004888672381639481,-0.0268308874219656,-0.01819968968629837,-0.017539886757731438,-0.011022398248314857,0.05578035116195679,0.04882695525884628,-0.028268963098526,-0.046716686338186264,0.08497999608516693,0.01291226502507925,-0.06644462049007416,0.00848858430981636,0.05609588325023651,0.004086821805685759,0.003124027280136943,0.015056176111102104,-0.04562726244330406,0.1069994568824768,0.049831196665763855,0.025520484894514084,-0.015662867575883865,-0.02750539407134056,0.06985566020011902,-0.04710826277732849,0.047734957188367844,-0.14356499910354614,-0.06391319632530212,0.08056484907865524,0.029616285115480423,-0.05610394477844238,0.056343622505664825,0.004006237257272005,0.0462038516998291,0.00014265197387430817,0.018675288185477257,0.051347240805625916,-0.041017159819602966,0.01752958819270134,-0.02567550353705883,0.0893300250172615,-0.040007106959819794,0.03162556141614914,-0.06537221372127533,-0.02188887447118759,-0.021126719191670418,0.008425765670835972,0.03482783958315849,0.013564657419919968,-0.07281220704317093,-0.013032877817749977,-0.01029939204454422,-0.005823152605444193,0.04009975492954254,0.007940960116684437,0.005406124517321587,-5.917838279856369e-05,0.02122051641345024,-0.04714592918753624,0.012661117129027843,-0.0568484403192997,0.05973905697464943,0.011499018408358097,-0.006022672634571791,-0.02634386159479618,0.0707027018070221,-0.008902257308363914,0.07752107083797455,-0.003572804620489478,-0.04954146221280098,-0.05058012530207634,-0.05564522743225098,0.017132414504885674,-0.009905429556965828,0.046504609286785126,0.09557516872882843,0.04515954479575157,-0.010422714054584503,-0.048074688762426376,0.030910717323422432,-0.05827140808105469,0.006531475577503443,-0.055519383400678635,-0.01918337494134903,0.04147110879421234,0.02914922498166561,-0.04702111333608627,-0.019154435023665428,0.0911867767572403,-0.02291494607925415,0.05419323220849037,0.0009584804647602141,0.10106918960809708,-0.05707251653075218,-0.005114065948873758,-0.016216255724430084,0.07211118191480637,-2.2802823878009804e-05,-0.034352004528045654,-0.08313679695129395,0.02311326563358307,0.030913744121789932,-0.0348101444542408,-0.020792819559574127,0.02534354291856289,0.09062651544809341,0.009516315534710884,0.0027805729769170284,0.09407171607017517,0.04399631544947624,0.031569380313158035,-0.0036625410430133343,-0.022161617875099182,-0.007771297823637724,0.041146960109472275,-0.011384065262973309,0.06055085361003876,0.01946481131017208,0.04877224564552307,0.03989144042134285,0.01832452230155468,-9.196384053211659e-05,-0.006332739256322384,-0.08028169721364975,-0.07452968508005142,-0.049760811030864716,0.04881972074508667,-0.08055493980646133,0.0025768177583813667,-0.014167951419949532,-0.01862006075680256,-0.01628689654171467,-0.022780971601605415,-0.029268592596054077,0.05130378529429436,0.024691831320524216,0.0994853526353836,-0.02696055918931961,0.03114093653857708,-0.07802291214466095,0.027374399825930595,-0.04061970114707947,0.03401518240571022,-0.026079585775732994,-0.005767553113400936,0.044185422360897064,-0.06744608283042908,0.005429147742688656,0.04058670252561569,-0.013904524967074394,0.02657785639166832,-0.02934873104095459,0.019952954724431038,-0.05443739891052246,0.030738839879631996,0.007012392394244671,-0.04970209673047066,-0.050672173500061035,0.06681498885154724,0.03531745448708534,-0.022309133782982826,-0.02411760948598385,-0.005167797207832336,0.05864367261528969,-0.04547060653567314,-0.026553038507699966,0.023883197456598282,-0.008315745741128922,-0.016406647861003876,0.03349987044930458,-0.005199790000915527,0.06853213161230087,0.0355229452252388,-0.013737067580223083,-0.010720109567046165,-0.06784144788980484,-0.029734497889876366,0.00448498735204339,0.07779611647129059,-0.03591255471110344,-0.0018414328806102276,0.06929514557123184,-0.021764414384961128,-0.043471597135066986,0.06091342493891716,0.031368233263492584,0.051195546984672546,0.03460988029837608,-0.0255893561989069,0.0691438615322113,-0.03115273267030716,-0.11280675232410431,0.016470396891236305,0.05285383015871048,-0.10099704563617706,0.008610988967120647,-0.006330431438982487,-0.10251252353191376,-0.0951165035367012,-0.04366466403007507,-0.03479861840605736,0.0005515055381692946,0.019511012360453606,-0.03096056915819645,0.015987858176231384,-0.047224320471286774,0.011997035704553127,0.032914407551288605,0.06747796386480331,-0.07534707337617874,-0.028254864737391472,0.037539150565862656,-0.0652836486697197,0.0699014961719513,-0.006699807476252317,-0.023359300568699837,-0.005421156994998455,0.009937257505953312,0.044476449489593506,0.06415146589279175,0.029631514102220535,-0.019097628071904182,0.09603232890367508,0.01798941381275654,0.04324858635663986,0.021148400381207466,0.04426395148038864,0.0501638688147068,-0.07765797525644302,0.014067175798118114,0.013197041116654873,0.0029782624915242195,-0.033609483391046524,0.005877760238945484,-0.04599874094128609,-0.04649566113948822,0.06649951636791229,0.004538206849247217,0.026330048218369484,0.04909566789865494,-0.0275434497743845,0.021496925503015518,0.0007679042173549533,-0.003466869704425335,0.004555732477456331,-0.02194383554160595,-0.0809866338968277,-0.005796015728265047,0.06270120292901993,0.023154450580477715,-0.08314505219459534,-0.03489965200424194,-0.038070134818553925,-0.016157709062099457,0.028341375291347504,0.044281311333179474,-0.054204151034355164,0.030522635206580162,-0.012297260574996471,-0.0316389836370945,-0.024399422109127045,-0.03081534057855606,-0.012075607664883137,-0.016547607257962227,-0.04509342834353447,-0.06503075361251831,0.007272691000252962,0.006378077901899815,0.008710557594895363,0.022939512506127357,-0.061362940818071365,0.015260395593941212,0.0051383874379098415
